1000,-132822.82290899236,
2000,-141830.0699119623,
3000,-192261.03334492721,
4000,-176417.11698541808,
5000,550584.0525719799,
6000,94531177.6449514,
7000,100716355.98249336,
8000,82675373.97003174,
9000,64462448.46572876,
10000,49601124.642562866,
11000,3.0105965065435845,
12000,28903634.4789505,
13000,21323417.75112152,
14000,0.9229195935126027,
15000,0.2641668603192344,
16000,0.9952455521512497,
17000,0.0789265707943582,
18000,0.5647150810343737,
19000,17135521.926279142,
20000,-0.14974857589778295,
21000,-0.09084782231591611,
22000,-0.16754603263125262,
23000,-0.1397743745555008,
24000,0.08898831387211653,
25000,1.2547019206166472,
26000,-0.33898686703038056,
27000,-0.22953928247134472,
28000,0.560017632128842,
29000,-0.2750086755685519,
30000,-0.31170627126058764,
31000,-0.22091972540799598,
32000,-0.39582431966478226,
33000,-0.26984478557361424,
34000,-0.2764385820256569,
35000,-0.23390576495803445,
36000,-0.14006701792748785,
37000,-0.2201995461501099,
38000,-0.18454464655822328,
39000,-0.20255788270057795,
40000,-0.08256699419573375,
